solver_type L1R_LR
nr_class 2
label 1 -1
nr_feature 123
bias -1
w
-1.582078049646382 
-0.642353059177759 
-0.03749159485897963 
0.2771411674145598 
0.2653433548837567 
0.3415826259468487 
-0.05175901290550707 
0.664475778321269 
0.7785762379454263 
0.09938683894685095 
-0.01638170625676196 
-1.966943713947588 
0 
-0.1943487933572316 
0 
-0.01427068979115089 
0.03436343933761782 
0.04405623496590667 
-0.2671859968627904 
-0.01805747891909384 
0.5658635598535398 
-0.05370627691645281 
0.6313660889689086 
0.0203659899281737 
0 
-0.1356879782597286 
-0.05013455680484838 
0.8274477288905491 
0 
0 
0.3329462841850907 
0.7437508445692492 
-0.07194377091195173 
-1.926282111405892 
-1.494061719727004 
-0.3166280869327708 
0 
0.1427422938386556 
1.007621381801709 
1.789552587610372 
-0.4475053816996695 
-0.577595376635344 
-0.5775327047371792 
0.07589587177513718 
-0.2633062199626867 
2.16187459176026 
0.7074073117375321 
0.1048275739725781 
-0.7075406813675604 
0.3929609161252481 
0.8013002964263505 
0.6108089768685096 
-0.6786424810841956 
-0.3491153276395321 
0.09966883995979201 
-0.8531071757633746 
0 
-1.398866235553087 
0.7296056533697333 
-0.4887607820122212 
1.078440711552346 
-0.7974653657893828 
-0.365703925070073 
0.227254295285581 
-0.6760816771256906 
0 
0.1009172420096765 
0.1545114041709269 
-0.3633029234077111 
-0.3484744324185876 
-0.02191163808743305 
-0.8402401543317437 
0 
-1.624966833470328 
0 
-1.122080608688373 
0 
-1.220098499608685 
-0.4182725480858192 
-0.183241852284002 
0.1221263566926127 
0.282442600832818 
0.3074189050166497 
0.7959947049068736 
0.179689226126266 
-0.5067405511765133 
0.592363376246412 
0.6766998296161411 
-0.991029010354986 
-0.2349170170278676 
0.5804018208787766 
-0.93788799387005 
-0.5434195848637735 
-0.5901649721443204 
0.3803698957580355 
0.2590827574224139 
0 
0.7183509687151004 
0.8098991683873735 
0.08993105400479942 
-0.07476049969988381 
-0.9283947988462313 
-0.3739799928196428 
0.03171888330308115 
1.197937572543021 
0.7364578149257212 
-1.349880912920405 
-0.131225067370858 
0 
0.1703791693215565 
0.2216059824256973 
-2.031437061283596 
0 
-0.4399798222194601 
-0.0728251038840361 
0 
0 
0.480264506314448 
-0.3699822088077383 
-0.1089542718979226 
-1.247016957015914 
0 
0 
