solver_type L2R_LR_DUAL
nr_class 2
label 1 -1
nr_feature 123
bias -1
w
-1.405596634889423 
-0.4682987280699869 
0.1362273112085996 
0.4516040100290368 
0.4397429641456089 
0.272482453321021 
-0.1217525960452402 
0.5962470393736309 
0.7108778470314801 
0.03166299694157991 
-0.08715708783925695 
-1.562896506360786 
-0.02139030753647175 
-0.3382697411537578 
-0.1436454586051658 
-0.158018625811767 
-0.1082888685320367 
-0.09809838347343289 
-0.3160611630691131 
-0.07754472720078702 
0.3853501956961168 
-0.2536150397050397 
0.5853172339298349 
0.01660641830816841 
-0.005409672689389567 
-0.3330704818489338 
-0.2434041338192143 
0.6498882058551974 
-0.04802908515959328 
-0.1814597894603594 
0.1539824294580236 
0.6977656634543966 
-0.272253969672607 
-1.604383161652897 
-1.445350705444616 
-0.2536150397050397 
-0.07754472720078702 
0.01119674561877561 
0.9189926491554795 
1.361735331958384 
-0.8685147293912591 
-0.9982578424542956 
-0.9993959157893377 
-0.337721314790107 
-0.6866634577326577 
1.682496850623049 
0.7806463867546123 
0.1775012552521867 
-0.6366560494045702 
0.4660338358905273 
0.8739017122528062 
0.6830429987631287 
-0.608814810564475 
-0.2775913673138875 
0.1731860611296467 
-0.7818162144901953 
0.07198242921320189 
-1.267593787360333 
0.8027871010178727 
-0.6171454047181696 
1.033114662361635 
-0.8526845048836591 
-0.4135995651930782 
0.172522728454601 
-0.7309779712087859 
-0.05469642710687778 
0.02719677486948596 
0.09726435370470983 
-0.4430292609171552 
-0.431996069591382 
-0.09575687564182968 
-0.8440581755511589 
-0.002262902024978548 
-1.235576628111514 
0.3892555505354043 
-0.9845242997404486 
0.1382032221641868 
-1.106438295581563 
-0.3051530754722875 
-0.06920669005897638 
0.237366616945531 
0.3971103665910822 
0.3203644478620747 
0.7944080639887713 
0.2149580301307943 
-0.5126636679076633 
0.6137970952967451 
0.6949582245068844 
-0.9883200099324824 
-0.2518466045330437 
0.600181321041908 
-0.9302415984635495 
-0.5636271012589345 
-0.605883634626247 
0.4086032830190875 
0.3053642653529538 
-0.4062471859294397 
0.7218200935071735 
0.8294203559375268 
0.1436339080620596 
-0.112602494640256 
-0.9369156118922268 
-0.3693408311544928 
0.1589724818341433 
1.188923027296733 
0.7655890205362289 
-1.276815633955142 
-0.2655619308334961 
0.08826827466022687 
0.2151741321585848 
0.3123583375514719 
-1.828012900473567 
0.06099723800146514 
-0.5206523270670803 
-0.1834245960481596 
-0.09934859594265783 
-0.1271255601274192 
0.5754460993881579 
-0.400364364605381 
-0.2407417455619543 
-1.182697068445582 
0.04856035719376566 
-0.03552237596609659 
