solver_type L2R_LR
nr_class 2
label 1 -1
nr_feature 123
bias -1
w
-1.405593570756399 
-0.4682982165167073 
0.1362269824284654 
0.4516048066243797 
0.4397435311249124 
0.2724719817246115 
-0.1217614569900122 
0.5962417430762274 
0.7108655149246425 
0.03165199851783248 
-0.08716940324504513 
-1.562633240080652 
-0.02069166908905111 
-0.3382687747906431 
-0.1436446656368442 
-0.1580178401378353 
-0.1082880043250483 
-0.09809718219307877 
-0.3160631343954948 
-0.07754631581577116 
0.3853373136642239 
-0.2536167936791757 
0.5853132564401603 
0.01660279350947165 
-0.005408412136670385 
-0.3330822774813744 
-0.2434218732526113 
0.6498759631838051 
-0.04803080639716153 
-0.1815081877448705 
0.1539637686956016 
0.6977722404557362 
-0.272281713446557 
-1.604222288679364 
-1.445339295059743 
-0.2536167936791757 
-0.07754631581577116 
0.01119438137341204 
0.9189915560952515 
1.361745831076896 
-0.8685191904698904 
-0.9982596649247675 
-0.9994041191112352 
-0.3377305220385988 
-0.6866686321754215 
1.682519830550057 
0.7806583314154539 
0.1775149089556382 
-0.6366440436785891 
0.466047015190651 
0.8739148046858584 
0.6830558000625899 
-0.608792026729262 
-0.2775752459610011 
0.1732003613115062 
-0.7818086569222532 
0.07199899142286127 
-1.267616122540511 
0.8028023943627808 
-0.6170893736273366 
1.033109468781394 
-0.8526896063599684 
-0.4136056879145414 
0.1725309434236502 
-0.7309787701281598 
-0.05468281489735811 
0.02719905426375787 
0.09725715747194709 
-0.4430052067229694 
-0.4320139444705878 
-0.09575352763098087 
-0.8440561274187596 
-0.002260339656721172 
-1.235574281960209 
0.3892578148492416 
-0.9845222241437572 
0.138205757039464 
-1.106437533302824 
-0.3051512201498888 
-0.06920579687688554 
0.2373670929529946 
0.3971109903137983 
0.3203482734064539 
0.7943740047321117 
0.2149474628907752 
-0.5126716834900232 
0.6137638167590205 
0.6949439119681753 
-0.9884206235655429 
-0.2518468237908193 
0.6002063703868145 
-0.9302389314030685 
-0.5636524086933871 
-0.6059049032388195 
0.4085996346798813 
0.3053788383551514 
-0.4062432904788547 
0.7218149860292201 
0.8294283602456379 
0.1436381169271459 
-0.1125965388134068 
-0.9369304647400959 
-0.3693538031006303 
0.1590124406541837 
1.188930839997089 
0.7655612258790882 
-1.276941439618303 
-0.2657084078751408 
0.08828567318737578 
0.215175204697246 
0.3123467710599321 
-1.82813034532579 
0.06102013976243067 
-0.5207718008183188 
-0.1834582100813042 
-0.09943843308266807 
-0.1272385853911997 
0.5754639715918165 
-0.4004131496018303 
-0.2408503906027846 
-1.182851782319018 
0.0485638957342738 
-0.03444908323196325 
