solver_type L2R_LR_DUAL
nr_class 2
label 1 -1
nr_feature 123
bias 0
w
-0.63040884844278555 
-1.3625002925968099 
-0.42511229671822864 
0.17942241081103966 
0.4948020196902414 
0.48297931037101233 
0.27289945273265276 
-0.1213484387401607 
0.5966711451996759 
0.71130087433748812 
0.032063192987856114 
-0.086755548302037688 
-1.56271963593751 
-0.021373145491284447 
-0.29509312714177338 
-0.1004562630891601 
-0.11483688974896339 
-0.065106026712373033 
-0.054916541750502854 
-0.30313761437446279 
-0.045306261055356664 
0.39290593464878099 
-0.22137710030415717 
0.59818148765412826 
0.038081396018018562 
0.016078150828886976 
-0.32558953229332194 
-0.23585701058778025 
0.65745021210465759 
-0.035126122989471917 
-0.17431559028845503 
0.16153058249732374 
0.71065550026325652 
-0.26478107712473115 
-1.5998018034400543 
-1.3884582844835731 
-0.22137710030415717 
-0.045306261055356664 
0.054159546846906007 
0.97057325055340615 
1.3934683083098698 
-0.83748472297565757 
-0.96717837845835264 
-0.96853865276925055 
-0.3068027959175188 
-0.65589983887654824 
1.7120272322445425 
0.7808320229919139 
0.17768643784077998 
-0.63643857443609198 
0.46621117364689291 
0.87408286276968905 
0.68324388327886332 
-0.60861599950825607 
-0.27739323870937299 
0.17337429528237791 
-0.78163713516028988 
0.072173911176175304 
-1.2674108738348688 
0.80297115987797651 
-0.61696888293787189 
1.0688282012794694 
-0.81657679174559861 
-0.3779192732868325 
0.20889212921836567 
-0.69529626516929877 
-0.018336848738928112 
0.070676863521142497 
0.14067355500968279 
-0.40013541955781973 
-0.38931542664543706 
-0.052308420770298195 
-0.73610938004178328 
0.10570053159898644 
-1.127586462766369 
0.49717761432341157 
-0.87649211885241107 
0.24608327040954489 
-1.0632004369509216 
-0.26201824325235895 
-0.02600397455222931 
0.28051620133300392 
0.44029760497968379 
0.3212962448794856 
0.79543186006086941 
0.21582702623466887 
-0.51162374514321551 
0.61474082718058431 
0.69586350728048041 
-0.98788889757029341 
-0.25085323983127905 
0.60110639659780285 
-0.92941546107769624 
-0.5626695674807185 
-0.60491876735408601 
0.4094836969209999 
0.30626749407029813 
-0.40579332828543335 
0.72280715042787536 
0.83033379508269745 
0.14452175646731583 
-0.11171414662940511 
-0.93600772810476229 
-0.36832078680392338 
0.15985276809522131 
1.1897619375361868 
0.76642802198556714 
-1.2759147614094275 
-0.26473564275759653 
0.089168885057449077 
0.21612846513852313 
0.31325930774292043 
-1.8271673261849699 
0.06175867760162923 
-0.51983781093129189 
-0.18248712425141275 
-0.098541507936912298 
-0.1262746227620076 
0.57617307365935944 
-0.39947853398126382 
-0.23995482169242499 
-1.1819852186876005 
0.049445430784557418 
-0.035464919307055233 
