solver_type L2R_LR_DUAL
nr_class 2
label 1 -1
nr_feature 123
bias 0
w
-0.59640127496000461 
-1.3148579207568902 
-0.41649992374151767 
0.17911838813914716 
0.48690976463819474 
0.46892841676110736 
0.23807824950023637 
-0.15272790221780114 
0.55372168279482636 
0.66063615402467324 
0.0066934909461299711 
-0.10710554113776982 
-0.33700736793748454 
-0.0018886718722569194 
-0.28193529606557616 
-0.094702920530458853 
-0.10723211058933824 
-0.063076002345958143 
-0.049454945428666339 
-0.28951410595920291 
-0.06524862081499487 
0.17362906288952332 
-0.24147753619360302 
0.56617156944107039 
0.030359121789712715 
-0.0012564975271895191 
-0.45089362152365831 
-0.39072924315773472 
0.39357293731691168 
-0.026609263251825575 
-0.20245654780182193 
-0.03195888716221993 
0.66657770879035816 
-0.33221171830027924 
-0.39435563349506142 
-1.2354036512343114 
-0.24147753619360302 
-0.06524862081499487 
0.029102624262521821 
0.91662590902040797 
1.2327230782231777 
-0.62443196188884675 
-0.77322263764431309 
-0.71019006471199619 
-0.10861606605493376 
-0.40194052627959514 
0.78927690339651813 
0.72544321294012981 
0.15261546294404693 
-0.63733605187898157 
0.43702574728178467 
0.84205269183864528 
0.658782971311762 
-0.59888822535427022 
-0.29954891004491269 
0.1510253093653457 
-0.76880858179230604 
0.044048407591952748 
-0.47248236807452915 
0.74256396891945042 
-0.11420486907532886 
1.2144944446837953 
-0.87721236288164006 
-0.16544655417733978 
0.049319153228538415 
-0.6269664489013691 
-0.19058950691197713 
0.072379754523313605 
0.10050300361588981 
-0.34649714922499897 
-0.36509297021908632 
-0.057693913655122511 
-0.70238660504897743 
0.1059853300889811 
-1.1028099130549935 
0.50640863809503933 
-0.85273257252032419 
0.25633129756031553 
-1.0433830541253788 
-0.25416732863350838 
-0.023257076881050078 
0.28228100335622225 
0.44212518132372663 
0.28048000870959283 
0.29942685989179108 
0.13371839212160686 
-0.36510331963481829 
0.45676713961615745 
0.51985682393485166 
-0.16353646023965782 
-0.19207094221347959 
0.39317654096903015 
-0.47805763550538671 
-0.37551064444656718 
-0.42994783919069246 
0.27907798704719894 
0.16681229983900209 
-0.053470360186778892 
0.60011938320345548 
0.5650446822553179 
0.058889116579013662 
-0.082797519384775087 
-0.48056525343358653 
-0.39139818804915344 
0.035227210516037354 
0.45037175215636038 
0.39110921074279464 
-0.49881400391924868 
-0.091608125176580901 
0.018847552272886443 
0.12757638676177016 
0.11451601604999068 
-0.69338028458687839 
0.011010060570560082 
-0.1918652386238329 
-0.10048513675129689 
-0.039347931684910041 
-0.048765051067583338 
0.17095088297519578 
-0.24463043161740355 
-0.084750195474986995 
-0.36469335110450257 
0.020984374827342677 
-0.0035317748544152435 
