solver_type L2R_LR
nr_class 2
label 1 -1
nr_feature 123
bias 0
w
-0.63040884343045978 
-1.3625003049073881 
-0.4251123020886487 
0.17942241610779591 
0.49480202572184234 
0.48297932173614794 
0.27289937987140384 
-0.12134852163745367 
0.59667108367500132 
0.71130080299861786 
0.032063140144247854 
-0.086755605076194273 
-1.5627187230000716 
-0.021367834505901642 
-0.29509311864463106 
-0.10045626086352688 
-0.11483690101132432 
-0.065106014793904585 
-0.054916548116634496 
-0.30313761565250652 
-0.045306269413218407 
0.39290583237294785 
-0.22137712458136463 
0.59818148591788378 
0.038081402581186648 
0.016078118871180574 
-0.32558963838776078 
-0.23585716349180921 
0.65745011762350947 
-0.03512612996880405 
-0.17431542387085569 
0.16153046036398605 
0.71065548542055101 
-0.2647813512952592 
-1.5998010299202756 
-1.3884581966055363 
-0.22137712458136463 
-0.045306269413218407 
0.054159521452382495 
0.97057322571707394 
1.3934682804060756 
-0.8374846829196626 
-0.96717834022680338 
-0.96853857302518998 
-0.30680278476670914 
-0.65589977985094716 
1.7120270369532362 
0.78083205286528823 
0.17768647332140228 
-0.63643852722103811 
0.46621119842413866 
0.87408290488680807 
0.68324391027835196 
-0.60861593672146441 
-0.277393197435223 
0.17337432724266785 
-0.78163708985076252 
0.072173954226777623 
-1.2674107541733093 
0.80297116494323428 
-0.61696892381100821 
1.0688282462538206 
-0.81657682235807338 
-0.37791921144481466 
0.20889210002862776 
-0.69529626175089254 
-0.018336894158955137 
0.070676834851845394 
0.14067349915898395 
-0.40013535479045248 
-0.38931538120207493 
-0.052308441448647679 
-0.7361093762545452 
0.10570053282369075 
-1.1275864564390203 
0.497177613008567 
-0.87649211260384274 
0.24608326917275253 
-1.0632004205103338 
-0.26201823599825547 
-0.026003985788948088 
0.28051619523566684 
0.44029760363141085 
0.32129632148608511 
0.79543180298755634 
0.21582697005826573 
-0.51162366175674479 
0.61474094678477942 
0.69586357196133142 
-0.98788779313319874 
-0.25085306785273986 
0.60110646722967165 
-0.9294150849648195 
-0.56266947438798487 
-0.60491855106858594 
0.40948371997324301 
0.3062673968771652 
-0.40579245600085623 
0.72280718562927293 
0.83033385789198066 
0.14452181246995555 
-0.11171408252209458 
-0.93600742483535437 
-0.36832072432471563 
0.15985276651807759 
1.1897617504570093 
0.76642818067862906 
-1.2759144159933653 
-0.26473540107412991 
0.089169065360341054 
0.21612878057862936 
0.31325928641518203 
-1.8271669887045534 
0.061758856483432892 
-0.51983750957918251 
-0.18248690932526002 
-0.098541329860008978 
-0.12627445412967009 
0.57617291549715188 
-0.39947827335486424 
-0.23995462204436285 
-1.1819846664697036 
0.04944537512960534 
-0.035459121301119341 
