solver_type L2R_LR
nr_class 2
label 1 -1
nr_feature 123
bias 0
w
-0.59640128077462484 
-1.3148579173603088 
-0.41649993084434511 
0.17911839488739847 
0.48690976413749371 
0.4689284084051179 
0.23807827156999725 
-0.15272788144926644 
0.55372170825384182 
0.66063615873396553 
0.0066934903461224717 
-0.10710552942871132 
-0.3370073668459202 
-0.0018886420025902009 
-0.28193530068581424 
-0.094702930841601987 
-0.10723210836172913 
-0.063075997733556835 
-0.049454943151978362 
-0.28951410186002202 
-0.065248609796607182 
0.1736290575793161 
-0.24147754044203237 
0.56617154313065898 
0.030359115915664165 
-0.0012564951722094445 
-0.45089368403987495 
-0.39072926868136471 
0.39357295693918659 
-0.026609281313236061 
-0.20245647011270948 
-0.031958891296433867 
0.66657773137392662 
-0.33221171481461526 
-0.39435562818426606 
-1.2354036426107604 
-0.24147754044203237 
-0.065248609796607182 
0.029102620743457184 
0.91662589133132399 
1.2327230911770803 
-0.62443196117505628 
-0.77322264200900348 
-0.71019004685625642 
-0.1086161047311312 
-0.40194051908599038 
0.78927690190571298 
0.72544320732187428 
0.15261546789207942 
-0.63733604714473258 
0.43702575610869177 
0.84205269098566504 
0.6587829904022624 
-0.59888822928635699 
-0.29954891872400063 
0.15102530680398671 
-0.76880857573331496 
0.044048408823602073 
-0.47248237485439171 
0.74256397503874871 
-0.11420480645414295 
1.214494437238834 
-0.87721240009347368 
-0.16544655004417658 
0.049319164151810591 
-0.62696644149471026 
-0.19058949053295313 
0.07237974211263018 
0.10050298986495604 
-0.34649707240521477 
-0.36509300764881109 
-0.057693932698225613 
-0.70238660830611765 
0.10598532753149947 
-1.1028099060393541 
0.50640862526469088 
-0.85273257423495907 
0.25633129346037464 
-1.0433830543212952 
-0.25416732309336532 
-0.023257077532102845 
0.28228099185702799 
0.44212518231511 
0.28047999098882859 
0.29942686341015307 
0.13371838355210886 
-0.36510334204016409 
0.45676712252750423 
0.51985680215073105 
-0.16353633797214875 
-0.19207100314911621 
0.39317643534668628 
-0.47805759982423546 
-0.37551060900263272 
-0.42994786689746906 
0.27907796982437011 
0.16681221082900422 
-0.053470096453384415 
0.60011952394960899 
0.56504466094494266 
0.058889021542787801 
-0.08279749056756032 
-0.48056519779909773 
-0.39139815307918735 
0.035227229632461492 
0.45037176193762546 
0.39110921925722303 
-0.49881398464570242 
-0.091608120579338814 
0.018847558932345219 
0.12757636838638481 
0.11451603420741541 
-0.69338026349548265 
0.011010072002050106 
-0.19186522909110457 
-0.1004851164072392 
-0.039347923146008039 
-0.048765042841827498 
0.17095089079621659 
-0.24463035144207695 
-0.084750188834303575 
-0.36469333716307389 
0.020984380047071219 
-0.0035317316416212559 
